digraph Tree {
node [shape=box] ;
0 [label="failures <= 0.5\ngini = 0.4422\nsamples = 300\nvalue = [99, 201]\nclass = no"] ;
1 [label="Mjob_services <= 0.5\ngini = 0.3609\nsamples = 237\nvalue = [56, 181]\nclass = no"] ;
0 -> 1 [labeldistance=2.5, labelangle=45, headlabel="True"] ;
2 [label="guardian_other <= 0.5\ngini = 0.4075\nsamples = 186\nvalue = [53, 133]\nclass = no"] ;
1 -> 2 ;
3 [label="absences <= 55.0\ngini = 0.3901\nsamples = 177\nvalue = [47, 130]\nclass = no"] ;
2 -> 3 ;
4 [label="schoolsup <= 0.5\ngini = 0.382\nsamples = 175\nvalue = [45, 130]\nclass = no"] ;
3 -> 4 ;
5 [label="health <= 2.5\ngini = 0.3512\nsamples = 154\nvalue = [35, 119]\nclass = no"] ;
4 -> 5 ;
6 [label="Fjob_health <= 0.5\ngini = 0.1528\nsamples = 36\nvalue = [3, 33]\nclass = no"] ;
5 -> 6 ;
7 [label="school_GP <= 0.5\ngini = 0.1078\nsamples = 35\nvalue = [2, 33]\nclass = no"] ;
6 -> 7 ;
8 [label="Fedu <= 2.5\ngini = 0.375\nsamples = 8\nvalue = [2, 6]\nclass = no"] ;
7 -> 8 ;
9 [label="Dalc <= 1.5\ngini = 0.4444\nsamples = 3\nvalue = [2, 1]\nclass = yes"] ;
8 -> 9 ;
10 [label="gini = 0.0\nsamples = 2\nvalue = [2, 0]\nclass = yes"] ;
9 -> 10 ;
11 [label="gini = 0.0\nsamples = 1\nvalue = [0, 1]\nclass = no"] ;
9 -> 11 ;
12 [label="gini = 0.0\nsamples = 5\nvalue = [0, 5]\nclass = no"] ;
8 -> 12 ;
13 [label="gini = 0.0\nsamples = 27\nvalue = [0, 27]\nclass = no"] ;
7 -> 13 ;
14 [label="gini = 0.0\nsamples = 1\nvalue = [1, 0]\nclass = yes"] ;
6 -> 14 ;
15 [label="guardian_father <= 0.5\ngini = 0.3953\nsamples = 118\nvalue = [32, 86]\nclass = no"] ;
5 -> 15 ;
16 [label="higher <= 0.5\ngini = 0.4368\nsamples = 90\nvalue = [29, 61]\nclass = no"] ;
15 -> 16 ;
17 [label="gini = 0.0\nsamples = 2\nvalue = [2, 0]\nclass = yes"] ;
16 -> 17 ;
18 [label="age <= 15.5\ngini = 0.4254\nsamples = 88\nvalue = [27, 61]\nclass = no"] ;
16 -> 18 ;
19 [label="traveltime <= 2.5\ngini = 0.2188\nsamples = 16\nvalue = [2, 14]\nclass = no"] ;
18 -> 19 ;
20 [label="gini = 0.0\nsamples = 14\nvalue = [0, 14]\nclass = no"] ;
19 -> 20 ;
21 [label="gini = 0.0\nsamples = 2\nvalue = [2, 0]\nclass = yes"] ;
19 -> 21 ;
22 [label="Mjob_health <= 0.5\ngini = 0.4533\nsamples = 72\nvalue = [25, 47]\nclass = no"] ;
18 -> 22 ;
23 [label="absences <= 11.0\ngini = 0.4717\nsamples = 63\nvalue = [24, 39]\nclass = no"] ;
22 -> 23 ;
24 [label="freetime <= 3.5\ngini = 0.4483\nsamples = 56\nvalue = [19, 37]\nclass = no"] ;
23 -> 24 ;
25 [label="reason_home <= 0.5\ngini = 0.3599\nsamples = 34\nvalue = [8, 26]\nclass = no"] ;
24 -> 25 ;
26 [label="health <= 3.5\ngini = 0.2524\nsamples = 27\nvalue = [4, 23]\nclass = no"] ;
25 -> 26 ;
27 [label="Mjob_teacher <= 0.5\ngini = 0.4082\nsamples = 14\nvalue = [4, 10]\nclass = no"] ;
26 -> 27 ;
28 [label="absences <= 0.5\ngini = 0.2778\nsamples = 12\nvalue = [2, 10]\nclass = no"] ;
27 -> 28 ;
29 [label="famsup <= 0.5\ngini = 0.4444\nsamples = 3\nvalue = [2, 1]\nclass = yes"] ;
28 -> 29 ;
30 [label="gini = 0.0\nsamples = 2\nvalue = [2, 0]\nclass = yes"] ;
29 -> 30 ;
31 [label="gini = 0.0\nsamples = 1\nvalue = [0, 1]\nclass = no"] ;
29 -> 31 ;
32 [label="gini = 0.0\nsamples = 9\nvalue = [0, 9]\nclass = no"] ;
28 -> 32 ;
33 [label="gini = 0.0\nsamples = 2\nvalue = [2, 0]\nclass = yes"] ;
27 -> 33 ;
34 [label="gini = 0.0\nsamples = 13\nvalue = [0, 13]\nclass = no"] ;
26 -> 34 ;
35 [label="paid <= 0.5\ngini = 0.4898\nsamples = 7\nvalue = [4, 3]\nclass = yes"] ;
25 -> 35 ;
36 [label="Fedu <= 2.5\ngini = 0.375\nsamples = 4\nvalue = [1, 3]\nclass = no"] ;
35 -> 36 ;
37 [label="gini = 0.0\nsamples = 2\nvalue = [0, 2]\nclass = no"] ;
36 -> 37 ;
38 [label="freetime <= 2.5\ngini = 0.5\nsamples = 2\nvalue = [1, 1]\nclass = yes"] ;
36 -> 38 ;
39 [label="gini = 0.0\nsamples = 1\nvalue = [1, 0]\nclass = yes"] ;
38 -> 39 ;
40 [label="gini = 0.0\nsamples = 1\nvalue = [0, 1]\nclass = no"] ;
38 -> 40 ;
41 [label="gini = 0.0\nsamples = 3\nvalue = [3, 0]\nclass = yes"] ;
35 -> 41 ;
42 [label="absences <= 3.0\ngini = 0.5\nsamples = 22\nvalue = [11, 11]\nclass = yes"] ;
24 -> 42 ;
43 [label="studytime <= 2.5\ngini = 0.426\nsamples = 13\nvalue = [4, 9]\nclass = no"] ;
42 -> 43 ;
44 [label="romantic <= 0.5\ngini = 0.18\nsamples = 10\nvalue = [1, 9]\nclass = no"] ;
43 -> 44 ;
45 [label="gini = 0.0\nsamples = 9\nvalue = [0, 9]\nclass = no"] ;
44 -> 45 ;
46 [label="gini = 0.0\nsamples = 1\nvalue = [1, 0]\nclass = yes"] ;
44 -> 46 ;
47 [label="gini = 0.0\nsamples = 3\nvalue = [3, 0]\nclass = yes"] ;
43 -> 47 ;
48 [label="famrel <= 3.5\ngini = 0.3457\nsamples = 9\nvalue = [7, 2]\nclass = yes"] ;
42 -> 48 ;
49 [label="Walc <= 2.0\ngini = 0.4444\nsamples = 3\nvalue = [1, 2]\nclass = no"] ;
48 -> 49 ;
50 [label="gini = 0.0\nsamples = 2\nvalue = [0, 2]\nclass = no"] ;
49 -> 50 ;
51 [label="gini = 0.0\nsamples = 1\nvalue = [1, 0]\nclass = yes"] ;
49 -> 51 ;
52 [label="gini = 0.0\nsamples = 6\nvalue = [6, 0]\nclass = yes"] ;
48 -> 52 ;
53 [label="reason_home <= 0.5\ngini = 0.4082\nsamples = 7\nvalue = [5, 2]\nclass = yes"] ;
23 -> 53 ;
54 [label="gini = 0.0\nsamples = 4\nvalue = [4, 0]\nclass = yes"] ;
53 -> 54 ;
55 [label="Medu <= 1.5\ngini = 0.4444\nsamples = 3\nvalue = [1, 2]\nclass = no"] ;
53 -> 55 ;
56 [label="gini = 0.0\nsamples = 1\nvalue = [1, 0]\nclass = yes"] ;
55 -> 56 ;
57 [label="gini = 0.0\nsamples = 2\nvalue = [0, 2]\nclass = no"] ;
55 -> 57 ;
58 [label="nursery <= 0.5\ngini = 0.1975\nsamples = 9\nvalue = [1, 8]\nclass = no"] ;
22 -> 58 ;
59 [label="gini = 0.0\nsamples = 1\nvalue = [1, 0]\nclass = yes"] ;
58 -> 59 ;
60 [label="gini = 0.0\nsamples = 8\nvalue = [0, 8]\nclass = no"] ;
58 -> 60 ;
61 [label="freetime <= 4.5\ngini = 0.1913\nsamples = 28\nvalue = [3, 25]\nclass = no"] ;
15 -> 61 ;
62 [label="Fjob_at_home <= 0.5\ngini = 0.1372\nsamples = 27\nvalue = [2, 25]\nclass = no"] ;
61 -> 62 ;
63 [label="Walc <= 3.5\ngini = 0.074\nsamples = 26\nvalue = [1, 25]\nclass = no"] ;
62 -> 63 ;
64 [label="gini = 0.0\nsamples = 22\nvalue = [0, 22]\nclass = no"] ;
63 -> 64 ;
65 [label="reason_reputation <= 0.5\ngini = 0.375\nsamples = 4\nvalue = [1, 3]\nclass = no"] ;
63 -> 65 ;
66 [label="gini = 0.0\nsamples = 3\nvalue = [0, 3]\nclass = no"] ;
65 -> 66 ;
67 [label="gini = 0.0\nsamples = 1\nvalue = [1, 0]\nclass = yes"] ;
65 -> 67 ;
68 [label="gini = 0.0\nsamples = 1\nvalue = [1, 0]\nclass = yes"] ;
62 -> 68 ;
69 [label="gini = 0.0\nsamples = 1\nvalue = [1, 0]\nclass = yes"] ;
61 -> 69 ;
70 [label="health <= 3.5\ngini = 0.4989\nsamples = 21\nvalue = [10, 11]\nclass = no"] ;
4 -> 70 ;
71 [label="studytime <= 1.5\ngini = 0.3967\nsamples = 11\nvalue = [8, 3]\nclass = yes"] ;
70 -> 71 ;
72 [label="gini = 0.0\nsamples = 2\nvalue = [0, 2]\nclass = no"] ;
71 -> 72 ;
73 [label="romantic <= 0.5\ngini = 0.1975\nsamples = 9\nvalue = [8, 1]\nclass = yes"] ;
71 -> 73 ;
74 [label="gini = 0.0\nsamples = 8\nvalue = [8, 0]\nclass = yes"] ;
73 -> 74 ;
75 [label="gini = 0.0\nsamples = 1\nvalue = [0, 1]\nclass = no"] ;
73 -> 75 ;
76 [label="Mjob_other <= 0.5\ngini = 0.32\nsamples = 10\nvalue = [2, 8]\nclass = no"] ;
70 -> 76 ;
77 [label="gini = 0.0\nsamples = 2\nvalue = [2, 0]\nclass = yes"] ;
76 -> 77 ;
78 [label="gini = 0.0\nsamples = 8\nvalue = [0, 8]\nclass = no"] ;
76 -> 78 ;
79 [label="gini = 0.0\nsamples = 2\nvalue = [2, 0]\nclass = yes"] ;
3 -> 79 ;
80 [label="paid <= 0.5\ngini = 0.4444\nsamples = 9\nvalue = [6, 3]\nclass = yes"] ;
2 -> 80 ;
81 [label="famsup <= 0.5\ngini = 0.375\nsamples = 4\nvalue = [1, 3]\nclass = no"] ;
80 -> 81 ;
82 [label="gini = 0.0\nsamples = 1\nvalue = [1, 0]\nclass = yes"] ;
81 -> 82 ;
83 [label="gini = 0.0\nsamples = 3\nvalue = [0, 3]\nclass = no"] ;
81 -> 83 ;
84 [label="gini = 0.0\nsamples = 5\nvalue = [5, 0]\nclass = yes"] ;
80 -> 84 ;
85 [label="absences <= 23.5\ngini = 0.1107\nsamples = 51\nvalue = [3, 48]\nclass = no"] ;
1 -> 85 ;
86 [label="Fjob_at_home <= 0.5\ngini = 0.0768\nsamples = 50\nvalue = [2, 48]\nclass = no"] ;
85 -> 86 ;
87 [label="internet <= 0.5\ngini = 0.04\nsamples = 49\nvalue = [1, 48]\nclass = no"] ;
86 -> 87 ;
88 [label="goout <= 3.5\ngini = 0.32\nsamples = 5\nvalue = [1, 4]\nclass = no"] ;
87 -> 88 ;
89 [label="gini = 0.0\nsamples = 4\nvalue = [0, 4]\nclass = no"] ;
88 -> 89 ;
90 [label="gini = 0.0\nsamples = 1\nvalue = [1, 0]\nclass = yes"] ;
88 -> 90 ;
91 [label="gini = 0.0\nsamples = 44\nvalue = [0, 44]\nclass = no"] ;
87 -> 91 ;
92 [label="gini = 0.0\nsamples = 1\nvalue = [1, 0]\nclass = yes"] ;
86 -> 92 ;
93 [label="gini = 0.0\nsamples = 1\nvalue = [1, 0]\nclass = yes"] ;
85 -> 93 ;
94 [label="absences <= 3.5\ngini = 0.4334\nsamples = 63\nvalue = [43, 20]\nclass = yes"] ;
0 -> 94 [labeldistance=2.5, labelangle=-45, headlabel="False"] ;
95 [label="traveltime <= 3.5\ngini = 0.2778\nsamples = 30\nvalue = [25, 5]\nclass = yes"] ;
94 -> 95 ;
96 [label="studytime <= 1.5\ngini = 0.2378\nsamples = 29\nvalue = [25, 4]\nclass = yes"] ;
95 -> 96 ;
97 [label="gini = 0.0\nsamples = 13\nvalue = [13, 0]\nclass = yes"] ;
96 -> 97 ;
98 [label="address_U <= 0.5\ngini = 0.375\nsamples = 16\nvalue = [12, 4]\nclass = yes"] ;
96 -> 98 ;
99 [label="reason_course <= 0.5\ngini = 0.48\nsamples = 5\nvalue = [2, 3]\nclass = no"] ;
98 -> 99 ;
100 [label="gini = 0.0\nsamples = 3\nvalue = [0, 3]\nclass = no"] ;
99 -> 100 ;
101 [label="gini = 0.0\nsamples = 2\nvalue = [2, 0]\nclass = yes"] ;
99 -> 101 ;
102 [label="Walc <= 2.5\ngini = 0.1653\nsamples = 11\nvalue = [10, 1]\nclass = yes"] ;
98 -> 102 ;
103 [label="gini = 0.0\nsamples = 9\nvalue = [9, 0]\nclass = yes"] ;
102 -> 103 ;
104 [label="Mjob_services <= 0.5\ngini = 0.5\nsamples = 2\nvalue = [1, 1]\nclass = yes"] ;
102 -> 104 ;
105 [label="gini = 0.0\nsamples = 1\nvalue = [1, 0]\nclass = yes"] ;
104 -> 105 ;
106 [label="gini = 0.0\nsamples = 1\nvalue = [0, 1]\nclass = no"] ;
104 -> 106 ;
107 [label="gini = 0.0\nsamples = 1\nvalue = [0, 1]\nclass = no"] ;
95 -> 107 ;
108 [label="Mjob_at_home <= 0.5\ngini = 0.4959\nsamples = 33\nvalue = [18, 15]\nclass = yes"] ;
94 -> 108 ;
109 [label="studytime <= 2.5\ngini = 0.4592\nsamples = 28\nvalue = [18, 10]\nclass = yes"] ;
108 -> 109 ;
110 [label="failures <= 1.5\ngini = 0.4032\nsamples = 25\nvalue = [18, 7]\nclass = yes"] ;
109 -> 110 ;
111 [label="age <= 17.5\ngini = 0.4978\nsamples = 15\nvalue = [8, 7]\nclass = yes"] ;
110 -> 111 ;
112 [label="Fjob_at_home <= 0.5\ngini = 0.2778\nsamples = 6\nvalue = [1, 5]\nclass = no"] ;
111 -> 112 ;
113 [label="gini = 0.0\nsamples = 5\nvalue = [0, 5]\nclass = no"] ;
112 -> 113 ;
114 [label="gini = 0.0\nsamples = 1\nvalue = [1, 0]\nclass = yes"] ;
112 -> 114 ;
115 [label="Fjob_at_home <= 0.5\ngini = 0.3457\nsamples = 9\nvalue = [7, 2]\nclass = yes"] ;
111 -> 115 ;
116 [label="gini = 0.0\nsamples = 7\nvalue = [7, 0]\nclass = yes"] ;
115 -> 116 ;
117 [label="gini = 0.0\nsamples = 2\nvalue = [0, 2]\nclass = no"] ;
115 -> 117 ;
118 [label="gini = 0.0\nsamples = 10\nvalue = [10, 0]\nclass = yes"] ;
110 -> 118 ;
119 [label="gini = 0.0\nsamples = 3\nvalue = [0, 3]\nclass = no"] ;
109 -> 119 ;
120 [label="gini = 0.0\nsamples = 5\nvalue = [0, 5]\nclass = no"] ;
108 -> 120 ;
}